digraph Tree {
node [shape=box, style="filled, rounded", color="black", fontname="helvetica"] ;
edge [fontname="helvetica"] ;
0 [label="coord_x <= 333.067\ngini = 0.451\nsamples = 140\nvalue = [48, 92]\nclass = b", fillcolor="#a0d0f3"] ;
1 [label="gini = 0.0\nsamples = 48\nvalue = [48, 0]\nclass = a", fillcolor="#e58139"] ;
0 -> 1 [labeldistance=2.5, labelangle=45, headlabel="True"] ;
2 [label="gini = 0.0\nsamples = 92\nvalue = [0, 92]\nclass = b", fillcolor="#399de5"] ;
0 -> 2 [labeldistance=2.5, labelangle=-45, headlabel="False"] ;
}
